<?xml version="1.0"?>
<opencv_storage>
<cascade>
  <stageType>BOOST</stageType>
  <featureType>HAAR</featureType>
  <height>20</height>
  <width>20</width>
  <stageParams>
    <boostType>GAB</boostType>
    <minHitRate>9.9500000476837158e-01</minHitRate>
    <maxFalseAlarm>5.0000000000000000e-01</maxFalseAlarm>
    <weightTrimRate>9.4999999999999996e-01</weightTrimRate>
    <maxDepth>1</maxDepth>
    <maxWeakCount>100</maxWeakCount></stageParams>
  <featureParams>
    <maxCatCount>0</maxCatCount>
    <featSize>1</featSize>
    <mode>BASIC</mode></featureParams>
  <stageNum>9</stageNum>
  <stages>
    <!-- stage 0 -->
    <_>
      <maxWeakCount>3</maxWeakCount>
      <stageThreshold>-1.4429962635040283e+00</stageThreshold>
      <weakClassifiers>
        <_>
          <internalNodes>
            0 -1 33 -9.5378339290618896e-02</internalNodes>
          <leafValues>
            5.6756758689880371e-01 -9.4255876541137695e-01</leafValues></_>
        <_>
          <internalNodes>
            0 -1 2 6.2126316130161285e-02</internalNodes>
          <leafValues>
            -8.8833868503570557e-01 4.2100405693054199e-01</leafValues></_>
        <_>
          <internalNodes>
            0 -1 22 -1.0669069364666939e-02</internalNodes>
          <leafValues>
            4.6000075340270996e-01 -9.2144161462783813e-01</leafValues></_></weakClassifiers></_>
    <!-- stage 1 -->
    <_>
      <maxWeakCount>2</maxWeakCount>
      <stageThreshold>-9.6269881725311279e-01</stageThreshold>
      <weakClassifiers>
        <_>
          <internalNodes>
            0 -1 36 -9.0777061879634857e-02</internalNodes>
          <leafValues>
            2.8571428731083870e-02 -9.2925173044204712e-01</leafValues></_>
        <_>
          <internalNodes>
            0 -1 19 3.2137229572981596e-03</internalNodes>
          <leafValues>
            -9.9127024412155151e-01 2.8961118310689926e-02</leafValues></_></weakClassifiers></_>
    <!-- stage 2 -->
    <_>
      <maxWeakCount>5</maxWeakCount>
      <stageThreshold>-1.9081935882568359e+00</stageThreshold>
      <weakClassifiers>
        <_>
          <internalNodes>
            0 -1 31 5.1009818911552429e-02</internalNodes>
          <leafValues>
            -8.9736843109130859e-01 2.5000000372529030e-02</leafValues></_>
        <_>
          <internalNodes>
            0 -1 0 2.1644979715347290e-01</internalNodes>
          <leafValues>
            -8.5197800397872925e-01 1.3155212998390198e-01</leafValues></_>
        <_>
          <internalNodes>
            0 -1 29 4.5533880591392517e-02</internalNodes>
          <leafValues>
            -8.1627893447875977e-01 3.1321680545806885e-01</leafValues></_>
        <_>
          <internalNodes>
            0 -1 24 -2.2254805080592632e-03</internalNodes>
          <leafValues>
            2.8412255644798279e-01 -8.1597793102264404e-01</leafValues></_>
        <_>
          <internalNodes>
            0 -1 6 4.0364493615925312e-03</internalNodes>
          <leafValues>
            -6.1022084951400757e-01 4.7203120589256287e-01</leafValues></_></weakClassifiers></_>
    <!-- stage 3 -->
    <_>
      <maxWeakCount>5</maxWeakCount>
      <stageThreshold>-2.3506813049316406e+00</stageThreshold>
      <weakClassifiers>
        <_>
          <internalNodes>
            0 -1 30 4.1191868484020233e-02</internalNodes>
          <leafValues>
            -8.9431965351104736e-01 -3.6144576966762543e-02</leafValues></_>
        <_>
          <internalNodes>
            0 -1 12 -7.3940828442573547e-02</internalNodes>
          <leafValues>
            4.0772956609725952e-01 -6.8626332283020020e-01</leafValues></_>
        <_>
          <internalNodes>
            0 -1 35 2.4834234500303864e-04</internalNodes>
          <leafValues>
            -8.0964380502700806e-01 2.1546012163162231e-01</leafValues></_>
        <_>
          <internalNodes>
            0 -1 1 2.0811870694160461e-02</internalNodes>
          <leafValues>
            -5.2205544710159302e-01 3.7697589397430420e-01</leafValues></_>
        <_>
          <internalNodes>
            0 -1 37 -3.7010356783866882e-02</internalNodes>
          <leafValues>
            5.6160092353820801e-01 -4.8650902509689331e-01</leafValues></_></weakClassifiers></_>
    <!-- stage 4 -->
    <_>
      <maxWeakCount>4</maxWeakCount>
      <stageThreshold>-2.0287282466888428e+00</stageThreshold>
      <weakClassifiers>
        <_>
          <internalNodes>
            0 -1 18 -1.0780958458781242e-02</internalNodes>
          <leafValues>
            8.9999997615814209e-01 -8.5121953487396240e-01</leafValues></_>
        <_>
          <internalNodes>
            0 -1 25 2.5265989825129509e-03</internalNodes>
          <leafValues>
            -8.5570847988128662e-01 4.5061588287353516e-02</leafValues></_>
        <_>
          <internalNodes>
            0 -1 7 3.9078579284250736e-03</internalNodes>
          <leafValues>
            -7.7498382329940796e-01 3.4583303332328796e-01</leafValues></_>
        <_>
          <internalNodes>
            0 -1 26 -2.2268628701567650e-02</internalNodes>
          <leafValues>
            3.5029885172843933e-01 -6.6763335466384888e-01</leafValues></_></weakClassifiers></_>
    <!-- stage 5 -->
    <_>
      <maxWeakCount>6</maxWeakCount>
      <stageThreshold>-2.1247165203094482e+00</stageThreshold>
      <weakClassifiers>
        <_>
          <internalNodes>
            0 -1 28 4.8080287873744965e-02</internalNodes>
          <leafValues>
            -8.8071066141128540e-01 2.6923078298568726e-01</leafValues></_>
        <_>
          <internalNodes>
            0 -1 5 1.5983361750841141e-02</internalNodes>
          <leafValues>
            -7.5700390338897705e-01 2.0975559949874878e-01</leafValues></_>
        <_>
          <internalNodes>
            0 -1 21 -8.6612571030855179e-03</internalNodes>
          <leafValues>
            2.2893516719341278e-01 -8.1329774856567383e-01</leafValues></_>
        <_>
          <internalNodes>
            0 -1 3 7.1131467819213867e-02</internalNodes>
          <leafValues>
            -6.8694972991943359e-01 3.1340968608856201e-01</leafValues></_>
        <_>
          <internalNodes>
            0 -1 16 -1.2575728818774223e-02</internalNodes>
          <leafValues>
            5.1199668645858765e-01 -4.3010717630386353e-01</leafValues></_>
        <_>
          <internalNodes>
            0 -1 40 -1.1950136104132980e-04</internalNodes>
          <leafValues>
            -6.8783283233642578e-01 4.0111976861953735e-01</leafValues></_></weakClassifiers></_>
    <!-- stage 6 -->
    <_>
      <maxWeakCount>4</maxWeakCount>
      <stageThreshold>-1.4529080390930176e+00</stageThreshold>
      <weakClassifiers>
        <_>
          <internalNodes>
            0 -1 32 1.3922668993473053e-02</internalNodes>
          <leafValues>
            -8.4466022253036499e-01 1.</leafValues></_>
        <_>
          <internalNodes>
            0 -1 11 -1.2562437914311886e-03</internalNodes>
          <leafValues>
            1.6178891062736511e-01 -8.2041853666305542e-01</leafValues></_>
        <_>
          <internalNodes>
            0 -1 10 -1.3698438182473183e-02</internalNodes>
          <leafValues>
            -1. 1.3902205228805542e-01</leafValues></_>
        <_>
          <internalNodes>
            0 -1 15 -8.2462476566433907e-03</internalNodes>
          <leafValues>
            2.0896223187446594e-01 -9.0905880928039551e-01</leafValues></_></weakClassifiers></_>
    <!-- stage 7 -->
    <_>
      <maxWeakCount>6</maxWeakCount>
      <stageThreshold>-1.6561673879623413e+00</stageThreshold>
      <weakClassifiers>
        <_>
          <internalNodes>
            0 -1 34 7.6185101643204689e-03</internalNodes>
          <leafValues>
            -8.6533665657043457e-01 3.6842104792594910e-01</leafValues></_>
        <_>
          <internalNodes>
            0 -1 4 2.1431939676403999e-02</internalNodes>
          <leafValues>
            -7.6031285524368286e-01 2.5864526629447937e-01</leafValues></_>
        <_>
          <internalNodes>
            0 -1 9 4.9636336043477058e-03</internalNodes>
          <leafValues>
            2.3185871541500092e-01 -7.8382229804992676e-01</leafValues></_>
        <_>
          <internalNodes>
            0 -1 27 1.0697172023355961e-02</internalNodes>
          <leafValues>
            -6.4207667112350464e-01 3.4582057595252991e-01</leafValues></_>
        <_>
          <internalNodes>
            0 -1 8 1.5890392661094666e-01</internalNodes>
          <leafValues>
            2.2909539937973022e-01 -9.0403705835342407e-01</leafValues></_>
        <_>
          <internalNodes>
            0 -1 17 3.8054985925555229e-03</internalNodes>
          <leafValues>
            -8.4056961536407471e-01 2.1785451471805573e-01</leafValues></_></weakClassifiers></_>
    <!-- stage 8 -->
    <_>
      <maxWeakCount>6</maxWeakCount>
      <stageThreshold>-1.5883417129516602e+00</stageThreshold>
      <weakClassifiers>
        <_>
          <internalNodes>
            0 -1 38 9.2716693878173828e-02</internalNodes>
          <leafValues>
            -8.4019368886947632e-01 1.</leafValues></_>
        <_>
          <internalNodes>
            0 -1 13 1.5253394842147827e-01</internalNodes>
          <leafValues>
            -7.8914517164230347e-01 6.5352983772754669e-02</leafValues></_>
        <_>
          <internalNodes>
            0 -1 20 5.3977392613887787e-02</internalNodes>
          <leafValues>
            -5.3043466806411743e-01 3.7204304337501526e-01</leafValues></_>
        <_>
          <internalNodes>
            0 -1 39 -1.1756522872019559e-04</internalNodes>
          <leafValues>
            -7.9163223505020142e-01 2.7513766288757324e-01</leafValues></_>
        <_>
          <internalNodes>
            0 -1 14 1.7404511570930481e-02</internalNodes>
          <leafValues>
            2.1041053533554077e-01 -9.2199039459228516e-01</leafValues></_>
        <_>
          <internalNodes>
            0 -1 23 -1.8659303896129131e-03</internalNodes>
          <leafValues>
            2.9815542697906494e-01 -6.9163680076599121e-01</leafValues></_></weakClassifiers></_></stages>
  <features>
    <_>
      <rects>
        <_>
          0 0 18 15 -1.</_>
        <_>
          6 0 6 15 3.</_></rects>
      <tilted>0</tilted></_>
    <_>
      <rects>
        <_>
          0 12 12 1 -1.</_>
        <_>
          6 12 6 1 2.</_></rects>
      <tilted>0</tilted></_>
    <_>
      <rects>
        <_>
          0 12 18 2 -1.</_>
        <_>
          6 12 6 2 3.</_></rects>
      <tilted>0</tilted></_>
    <_>
      <rects>
        <_>
          2 12 15 6 -1.</_>
        <_>
          7 12 5 6 3.</_></rects>
      <tilted>0</tilted></_>
    <_>
      <rects>
        <_>
          3 7 6 6 -1.</_>
        <_>
          5 7 2 6 3.</_></rects>
      <tilted>0</tilted></_>
    <_>
      <rects>
        <_>
          3 8 6 4 -1.</_>
        <_>
          5 8 2 4 3.</_></rects>
      <tilted>0</tilted></_>
    <_>
      <rects>
        <_>
          4 9 2 5 -1.</_>
        <_>
          5 9 1 5 2.</_></rects>
      <tilted>0</tilted></_>
    <_>
      <rects>
        <_>
          5 3 9 2 -1.</_>
        <_>
          8 3 3 2 3.</_></rects>
      <tilted>0</tilted></_>
    <_>
      <rects>
        <_>
          5 3 11 12 -1.</_>
        <_>
          5 9 11 6 2.</_></rects>
      <tilted>0</tilted></_>
    <_>
      <rects>
        <_>
          5 6 6 3 -1.</_>
        <_>
          8 6 3 3 2.</_></rects>
      <tilted>0</tilted></_>
    <_>
      <rects>
        <_>
          5 6 8 10 -1.</_>
        <_>
          9 6 4 10 2.</_></rects>
      <tilted>0</tilted></_>
    <_>
      <rects>
        <_>
          5 8 4 3 -1.</_>
        <_>
          7 8 2 3 2.</_></rects>
      <tilted>0</tilted></_>
    <_>
      <rects>
        <_>
          5 13 8 6 -1.</_>
        <_>
          5 16 8 3 2.</_></rects>
      <tilted>0</tilted></_>
    <_>
      <rects>
        <_>
          6 5 13 15 -1.</_>
        <_>
          6 10 13 5 3.</_></rects>
      <tilted>0</tilted></_>
    <_>
      <rects>
        <_>
          7 4 8 9 -1.</_>
        <_>
          7 7 8 3 3.</_></rects>
      <tilted>0</tilted></_>
    <_>
      <rects>
        <_>
          7 12 10 3 -1.</_>
        <_>
          12 12 5 3 2.</_></rects>
      <tilted>0</tilted></_>
    <_>
      <rects>
        <_>
          8 0 7 6 -1.</_>
        <_>
          8 2 7 2 3.</_></rects>
      <tilted>0</tilted></_>
    <_>
      <rects>
        <_>
          8 4 4 10 -1.</_>
        <_>
          8 9 4 5 2.</_></rects>
      <tilted>0</tilted></_>
    <_>
      <rects>
        <_>
          9 1 3 3 -1.</_>
        <_>
          9 2 3 1 3.</_></rects>
      <tilted>0</tilted></_>
    <_>
      <rects>
        <_>
          9 6 2 10 -1.</_>
        <_>
          9 11 2 5 2.</_></rects>
      <tilted>0</tilted></_>
    <_>
      <rects>
        <_>
          9 9 9 6 -1.</_>
        <_>
          12 9 3 6 3.</_></rects>
      <tilted>0</tilted></_>
    <_>
      <rects>
        <_>
          9 12 4 4 -1.</_>
        <_>
          9 14 4 2 2.</_></rects>
      <tilted>0</tilted></_>
    <_>
      <rects>
        <_>
          9 12 5 4 -1.</_>
        <_>
          9 14 5 2 2.</_></rects>
      <tilted>0</tilted></_>
    <_>
      <rects>
        <_>
          9 13 1 4 -1.</_>
        <_>
          9 15 1 2 2.</_></rects>
      <tilted>0</tilted></_>
    <_>
      <rects>
        <_>
          10 7 8 1 -1.</_>
        <_>
          14 7 4 1 2.</_></rects>
      <tilted>0</tilted></_>
    <_>
      <rects>
        <_>
          10 9 1 4 -1.</_>
        <_>
          10 11 1 2 2.</_></rects>
      <tilted>0</tilted></_>
    <_>
      <rects>
        <_>
          10 12 3 6 -1.</_>
        <_>
          10 15 3 3 2.</_></rects>
      <tilted>0</tilted></_>
    <_>
      <rects>
        <_>
          11 3 4 6 -1.</_>
        <_>
          11 6 4 3 2.</_></rects>
      <tilted>0</tilted></_>
    <_>
      <rects>
        <_>
          11 6 6 4 -1.</_>
        <_>
          13 6 2 4 3.</_></rects>
      <tilted>0</tilted></_>
    <_>
      <rects>
        <_>
          11 6 5 12 -1.</_>
        <_>
          11 10 5 4 3.</_></rects>
      <tilted>0</tilted></_>
    <_>
      <rects>
        <_>
          11 8 6 3 -1.</_>
        <_>
          13 8 2 3 3.</_></rects>
      <tilted>0</tilted></_>
    <_>
      <rects>
        <_>
          11 8 6 4 -1.</_>
        <_>
          13 8 2 4 3.</_></rects>
      <tilted>0</tilted></_>
    <_>
      <rects>
        <_>
          12 5 2 6 -1.</_>
        <_>
          12 5 1 3 2.</_>
        <_>
          13 8 1 3 2.</_></rects>
      <tilted>0</tilted></_>
    <_>
      <rects>
        <_>
          12 5 6 10 -1.</_>
        <_>
          15 5 3 10 2.</_></rects>
      <tilted>0</tilted></_>
    <_>
      <rects>
        <_>
          12 6 2 4 -1.</_>
        <_>
          12 6 1 2 2.</_>
        <_>
          13 8 1 2 2.</_></rects>
      <tilted>0</tilted></_>
    <_>
      <rects>
        <_>
          12 6 3 2 -1.</_>
        <_>
          12 7 3 1 2.</_></rects>
      <tilted>0</tilted></_>
    <_>
      <rects>
        <_>
          12 8 8 6 -1.</_>
        <_>
          16 8 4 6 2.</_></rects>
      <tilted>0</tilted></_>
    <_>
      <rects>
        <_>
          13 9 4 7 -1.</_>
        <_>
          15 9 2 7 2.</_></rects>
      <tilted>0</tilted></_>
    <_>
      <rects>
        <_>
          14 4 2 15 -1.</_>
        <_>
          14 9 2 5 3.</_></rects>
      <tilted>0</tilted></_>
    <_>
      <rects>
        <_>
          16 9 1 2 -1.</_>
        <_>
          16 10 1 1 2.</_></rects>
      <tilted>0</tilted></_>
    <_>
      <rects>
        <_>
          17 12 1 2 -1.</_>
        <_>
          17 13 1 1 2.</_></rects>
      <tilted>0</tilted></_></features></cascade>
</opencv_storage>
